digraph Tree {
0 [label="parch <= 0.5000\ngini = 0.461554413531\nsamples = 916", shape="box"] ;
1 [label="embarked_C <= 0.5000\ngini = 0.433555656154\nsamples = 705", shape="box"] ;
0 -> 1 ;
2 [label="gender <= 0.5000\ngini = 0.400181077411\nsamples = 564", shape="box"] ;
1 -> 2 ;
3 [label="pclass <= 2.5000\ngini = 0.442932797663\nsamples = 148", shape="box"] ;
2 -> 3 ;
4 [label="gini = 0.1420\nsamples = 65\nvalue = [  5.  60.]", shape="box"] ;
3 -> 4 ;
5 [label="gini = 0.4982\nsamples = 83\nvalue = [ 44.  39.]", shape="box"] ;
3 -> 5 ;
6 [label="sibsp <= 0.5000\ngini = 0.236489922337\nsamples = 416", shape="box"] ;
2 -> 6 ;
7 [label="gini = 0.2305\nsamples = 346\nvalue = [ 300.   46.]", shape="box"] ;
6 -> 7 ;
8 [label="gini = 0.2649\nsamples = 70\nvalue = [ 59.  11.]", shape="box"] ;
6 -> 8 ;
9 [label="age <= 29.7500\ngini = 0.499371258991\nsamples = 141", shape="box"] ;
1 -> 9 ;
10 [label="gender <= 0.5000\ngini = 0.471952908587\nsamples = 76", shape="box"] ;
9 -> 10 ;
11 [label="gini = 0.3403\nsamples = 23\nvalue = [  5.  18.]", shape="box"] ;
10 -> 11 ;
12 [label="gini = 0.3289\nsamples = 53\nvalue = [ 42.  11.]", shape="box"] ;
10 -> 12 ;
13 [label="pclass <= 1.5000\ngini = 0.48\nsamples = 65", shape="box"] ;
9 -> 13 ;
14 [label="gini = 0.4444\nsamples = 54\nvalue = [ 18.  36.]", shape="box"] ;
13 -> 14 ;
15 [label="gini = 0.3967\nsamples = 11\nvalue = [ 8.  3.]", shape="box"] ;
13 -> 15 ;
16 [label="gender <= 0.5000\ngini = 0.499898924103\nsamples = 211", shape="box"] ;
0 -> 16 ;
17 [label="embarked_Q <= 0.5000\ngini = 0.453043704475\nsamples = 124", shape="box"] ;
16 -> 17 ;
18 [label="pclass <= 2.5000\ngini = 0.442592719077\nsamples = 121", shape="box"] ;
17 -> 18 ;
19 [label="gini = 0.1225\nsamples = 61\nvalue = [  4.  57.]", shape="box"] ;
18 -> 19 ;
20 [label="gini = 0.4800\nsamples = 60\nvalue = [ 36.  24.]", shape="box"] ;
18 -> 20 ;
21 [label="gini = 0.0000\nsamples = 3\nvalue = [ 3.  0.]", shape="box"] ;
17 -> 21 ;
22 [label="age <= 9.5000\ngini = 0.419077817413\nsamples = 87", shape="box"] ;
16 -> 22 ;
23 [label="age <= 0.7916\ngini = 0.482853223594\nsamples = 27", shape="box"] ;
22 -> 23 ;
24 [label="gini = 0.0000\nsamples = 2\nvalue = [ 2.  0.]", shape="box"] ;
23 -> 24 ;
25 [label="gini = 0.4608\nsamples = 25\nvalue = [  9.  16.]", shape="box"] ;
23 -> 25 ;
26 [label="embarked_S <= 0.5000\ngini = 0.277777777778\nsamples = 60", shape="box"] ;
22 -> 26 ;
27 [label="gini = 0.4444\nsamples = 18\nvalue = [ 12.   6.]", shape="box"] ;
26 -> 27 ;
28 [label="gini = 0.1723\nsamples = 42\nvalue = [ 38.   4.]", shape="box"] ;
26 -> 28 ;
}